<?xml version="1.0"?>
<opencv_storage>
<cascade>
  <stageType>BOOST</stageType>
  <featureType>HAAR</featureType>
  <height>24</height>
  <width>24</width>
  <stageParams>
    <boostType>GAB</boostType>
    <minHitRate>9.9500000476837158e-01</minHitRate>
    <maxFalseAlarm>5.0000000000000000e-01</maxFalseAlarm>
    <weightTrimRate>9.4999998807907104e-01</weightTrimRate>
    <maxDepth>1</maxDepth>
    <maxWeakCount>100</maxWeakCount></stageParams>
  <featureParams>
    <maxCatCount>0</maxCatCount>
    <featSize>1</featSize>
    <mode>BASIC</mode></featureParams>
  <stageNum>20</stageNum>
  <stages>
    <!-- stage 0 -->
    <_>
      <maxWeakCount>3</maxWeakCount>
      <stageThreshold>-8.0674761533737183e-01</stageThreshold>
      <weakClassifiers>
        <_>
          <internalNodes>
            0 -1 127 1.3674062211066484e-03</internalNodes>
          <leafValues>
            -7.3493975400924683e-01 5.8709675073623657e-01</leafValues></_>
        <_>
          <internalNodes>
            0 -1 118 -2.2155806422233582e-02</internalNodes>
          <leafValues>
            4.4069930911064148e-01 -8.5392427444458008e-01</leafValues></_>
        <_>
          <internalNodes>
            0 -1 119 -2.6271985843777657e-03</internalNodes>
          <leafValues>
            7.8211641311645508e-01 -4.6710881590843201e-01</leafValues></_></weakClassifiers></_>
    <!-- stage 1 -->
    <_>
      <maxWeakCount>4</maxWeakCount>
      <stageThreshold>-1.2289199829101563e+00</stageThreshold>
      <weakClassifiers>
        <_>
          <internalNodes>
            0 -1 162 6.8443070631474257e-04</internalNodes>
          <leafValues>
            -7.6532399654388428e-01 6.1212122440338135e-01</leafValues></_>
        <_>
          <internalNodes>
            0 -1 103 1.2561740586534142e-03</internalNodes>
          <leafValues>
            -4.8734408617019653e-01 8.1570178270339966e-01</leafValues></_>
        <_>
          <internalNodes>
            0 -1 131 1.4803471276536584e-03</internalNodes>
          <leafValues>
            -5.6509155035018921e-01 6.2883812189102173e-01</leafValues></_>
        <_>
          <internalNodes>
            0 -1 19 -4.7023706138134003e-03</internalNodes>
          <leafValues>
            5.8883965015411377e-01 -5.6660550832748413e-01</leafValues></_></weakClassifiers></_>
    <!-- stage 2 -->
    <_>
      <maxWeakCount>6</maxWeakCount>
      <stageThreshold>-1.7964667081832886e+00</stageThreshold>
      <weakClassifiers>
        <_>
          <internalNodes>
            0 -1 148 -1.1989930644631386e-02</internalNodes>
          <leafValues>
            4.6285715699195862e-01 -7.4331551790237427e-01</leafValues></_>
        <_>
          <internalNodes>
            0 -1 23 -5.2837561815977097e-03</internalNodes>
          <leafValues>
            3.8767355680465698e-01 -6.4001011848449707e-01</leafValues></_>
        <_>
          <internalNodes>
            0 -1 17 1.0023963404819369e-03</internalNodes>
          <leafValues>
            -4.1884037852287292e-01 7.1256858110427856e-01</leafValues></_>
        <_>
          <internalNodes>
            0 -1 139 2.8311429545283318e-02</internalNodes>
          <leafValues>
            -4.3452957272529602e-01 5.1684063673019409e-01</leafValues></_>
        <_>
          <internalNodes>
            0 -1 58 3.3152208197861910e-04</internalNodes>
          <leafValues>
            -3.1540516018867493e-01 6.8860357999801636e-01</leafValues></_>
        <_>
          <internalNodes>
            0 -1 86 8.1795100122690201e-03</internalNodes>
          <leafValues>
            -3.7577494978904724e-01 6.1398768424987793e-01</leafValues></_></weakClassifiers></_>
    <!-- stage 3 -->
    <_>
      <maxWeakCount>7</maxWeakCount>
      <stageThreshold>-1.3988479375839233e+00</stageThreshold>
      <weakClassifiers>
        <_>
          <internalNodes>
            0 -1 104 -1.3037092983722687e-01</internalNodes>
          <leafValues>
            8.4745764732360840e-02 -8.1859409809112549e-01</leafValues></_>
        <_>
          <internalNodes>
            0 -1 4 3.0385931953787804e-02</internalNodes>
          <leafValues>
            -5.4117029905319214e-01 4.7584226727485657e-01</leafValues></_>
        <_>
          <internalNodes>
            0 -1 172 3.5201823338866234e-03</internalNodes>
          <leafValues>
            -3.6791220307350159e-01 6.9451773166656494e-01</leafValues></_>
        <_>
          <internalNodes>
            0 -1 105 -1.6541846562176943e-03</internalNodes>
          <leafValues>
            5.9098625183105469e-01 -3.0703404545783997e-01</leafValues></_>
        <_>
          <internalNodes>
            0 -1 132 -2.8467513038776815e-04</internalNodes>
          <leafValues>
            4.6876463294029236e-01 -4.1543653607368469e-01</leafValues></_>
        <_>
          <internalNodes>
            0 -1 102 3.2192873768508434e-03</internalNodes>
          <leafValues>
            -2.5923612713813782e-01 7.7763438224792480e-01</leafValues></_>
        <_>
          <internalNodes>
            0 -1 140 -1.2171353591838852e-04</internalNodes>
          <leafValues>
            4.1400772333145142e-01 -4.7700563073158264e-01</leafValues></_></weakClassifiers></_>
    <!-- stage 4 -->
    <_>
      <maxWeakCount>8</maxWeakCount>
      <stageThreshold>-1.1802250146865845e+00</stageThreshold>
      <weakClassifiers>
        <_>
          <internalNodes>
            0 -1 163 2.0023756660521030e-03</internalNodes>
          <leafValues>
            -6.1755484342575073e-01 5.9183675050735474e-01</leafValues></_>
        <_>
          <internalNodes>
            0 -1 88 -8.3100154995918274e-02</internalNodes>
          <leafValues>
            2.6130551099777222e-01 -6.9771605730056763e-01</leafValues></_>
        <_>
          <internalNodes>
            0 -1 55 -4.9391426146030426e-03</internalNodes>
          <leafValues>
            7.8892385959625244e-01 -2.6050794124603271e-01</leafValues></_>
        <_>
          <internalNodes>
            0 -1 70 -1.0520448908209801e-02</internalNodes>
          <leafValues>
            6.8392300605773926e-01 -2.7947077155113220e-01</leafValues></_>
        <_>
          <internalNodes>
            0 -1 151 9.0654694940894842e-04</internalNodes>
          <leafValues>
            -1.4560587704181671e-01 8.7267440557479858e-01</leafValues></_>
        <_>
          <internalNodes>
            0 -1 167 -1.9726408936548978e-05</internalNodes>
          <leafValues>
            4.8775354027748108e-01 -3.1142997741699219e-01</leafValues></_>
        <_>
          <internalNodes>
            0 -1 130 8.9906342327594757e-03</internalNodes>
          <leafValues>
            -3.7124931812286377e-01 4.5287436246871948e-01</leafValues></_>
        <_>
          <internalNodes>
            0 -1 82 8.2563323667272925e-04</internalNodes>
          <leafValues>
            -2.5489526987075806e-01 6.8129849433898926e-01</leafValues></_></weakClassifiers></_>
    <!-- stage 5 -->
    <_>
      <maxWeakCount>8</maxWeakCount>
      <stageThreshold>-8.3443117141723633e-01</stageThreshold>
      <weakClassifiers>
        <_>
          <internalNodes>
            0 -1 137 1.9633176270872355e-03</internalNodes>
          <leafValues>
            -6.0432767868041992e-01 6.1797749996185303e-01</leafValues></_>
        <_>
          <internalNodes>
            0 -1 150 2.5157718919217587e-03</internalNodes>
          <leafValues>
            -3.4760078787803650e-01 5.6010508537292480e-01</leafValues></_>
        <_>
          <internalNodes>
            0 -1 43 -1.6436094883829355e-03</internalNodes>
          <leafValues>
            6.4413279294967651e-01 -3.4500426054000854e-01</leafValues></_>
        <_>
          <internalNodes>
            0 -1 96 5.3399339318275452e-02</internalNodes>
          <leafValues>
            -2.3137964308261871e-01 6.4275461435317993e-01</leafValues></_>
        <_>
          <internalNodes>
            0 -1 37 -1.5008253976702690e-03</internalNodes>
          <leafValues>
            7.2475183010101318e-01 -1.8755713105201721e-01</leafValues></_>
        <_>
          <internalNodes>
            0 -1 177 1.7705364152789116e-03</internalNodes>
          <leafValues>
            -1.7151072621345520e-01 7.3373281955718994e-01</leafValues></_>
        <_>
          <internalNodes>
            0 -1 74 1.4086901210248470e-03</internalNodes>
          <leafValues>
            -2.1879070997238159e-01 6.2791651487350464e-01</leafValues></_>
        <_>
          <internalNodes>
            0 -1 101 -1.9736602902412415e-02</internalNodes>
          <leafValues>
            4.2503252625465393e-01 -3.6695739626884460e-01</leafValues></_></weakClassifiers></_>
    <!-- stage 6 -->
    <_>
      <maxWeakCount>7</maxWeakCount>
      <stageThreshold>-1.1917167901992798e+00</stageThreshold>
      <weakClassifiers>
        <_>
          <internalNodes>
            0 -1 57 -2.8243982791900635e-01</internalNodes>
          <leafValues>
            1.1934156715869904e-01 -7.4036508798599243e-01</leafValues></_>
        <_>
          <internalNodes>
            0 -1 174 5.7250689715147018e-03</internalNodes>
          <leafValues>
            -3.8170441985130310e-01 4.3743211030960083e-01</leafValues></_>
        <_>
          <internalNodes>
            0 -1 170 -2.8311193455010653e-04</internalNodes>
          <leafValues>
            -6.7850846052169800e-01 2.2986270487308502e-01</leafValues></_>
        <_>
          <internalNodes>
            0 -1 63 8.9002117514610291e-02</internalNodes>
          <leafValues>
            -2.4822433292865753e-01 5.5552369356155396e-01</leafValues></_>
        <_>
          <internalNodes>
            0 -1 42 -3.3605962526053190e-03</internalNodes>
          <leafValues>
            7.0566660165786743e-01 -2.1220937371253967e-01</leafValues></_>
        <_>
          <internalNodes>
            0 -1 62 1.0622919071465731e-03</internalNodes>
          <leafValues>
            2.0194374024868011e-01 -8.7962633371353149e-01</leafValues></_>
        <_>
          <internalNodes>
            0 -1 186 7.4046058580279350e-04</internalNodes>
          <leafValues>
            1.2267411500215530e-01 -9.1019356250762939e-01</leafValues></_></weakClassifiers></_>
    <!-- stage 7 -->
    <_>
      <maxWeakCount>9</maxWeakCount>
      <stageThreshold>-1.1340516805648804e+00</stageThreshold>
      <weakClassifiers>
        <_>
          <internalNodes>
            0 -1 85 3.1442951411008835e-02</internalNodes>
          <leafValues>
            -6.7799639701843262e-01 2.4293784797191620e-01</leafValues></_>
        <_>
          <internalNodes>
            0 -1 173 5.7919165119528770e-03</internalNodes>
          <leafValues>
            -3.4728831052780151e-01 5.1755326986312866e-01</leafValues></_>
        <_>
          <internalNodes>
            0 -1 9 -1.2126103043556213e-02</internalNodes>
          <leafValues>
            2.8985795378684998e-01 -4.3630865216255188e-01</leafValues></_>
        <_>
          <internalNodes>
            0 -1 7 7.6919961720705032e-03</internalNodes>
          <leafValues>
            -1.9203022122383118e-01 7.2056055068969727e-01</leafValues></_>
        <_>
          <internalNodes>
            0 -1 115 -4.2262724600732327e-03</internalNodes>
          <leafValues>
            5.2734178304672241e-01 -2.4452418088912964e-01</leafValues></_>
        <_>
          <internalNodes>
            0 -1 27 1.6184686683118343e-03</internalNodes>
          <leafValues>
            1.8136903643608093e-01 -7.1510422229766846e-01</leafValues></_>
        <_>
          <internalNodes>
            0 -1 112 7.0694269379600883e-04</internalNodes>
          <leafValues>
            -3.6772900819778442e-01 2.9219624400138855e-01</leafValues></_>
        <_>
          <internalNodes>
            0 -1 51 -1.7002173699438572e-03</internalNodes>
          <leafValues>
            -8.1866669654846191e-01 1.5091097354888916e-01</leafValues></_>
        <_>
          <internalNodes>
            0 -1 187 -1.4437496429309249e-04</internalNodes>
          <leafValues>
            -6.7230701446533203e-01 1.3961984217166901e-01</leafValues></_></weakClassifiers></_>
    <!-- stage 8 -->
    <_>
      <maxWeakCount>11</maxWeakCount>
      <stageThreshold>-1.3976999521255493e+00</stageThreshold>
      <weakClassifiers>
        <_>
          <internalNodes>
            0 -1 97 5.9176362119615078e-03</internalNodes>
          <leafValues>
            -5.9934854507446289e-01 2.6229506731033325e-01</leafValues></_>
        <_>
          <internalNodes>
            0 -1 116 -2.6892903260886669e-03</internalNodes>
          <leafValues>
            3.3081495761871338e-01 -3.9961341023445129e-01</leafValues></_>
        <_>
          <internalNodes>
            0 -1 146 2.9985116270836443e-05</internalNodes>
          <leafValues>
            -4.0490984916687012e-01 2.8467303514480591e-01</leafValues></_>
        <_>
          <internalNodes>
            0 -1 160 -2.3090559989213943e-03</internalNodes>
          <leafValues>
            3.4994676709175110e-01 -3.3623778820037842e-01</leafValues></_>
        <_>
          <internalNodes>
            0 -1 15 3.1927973031997681e-03</internalNodes>
          <leafValues>
            -2.3235167562961578e-01 4.7301426529884338e-01</leafValues></_>
        <_>
          <internalNodes>
            0 -1 26 -5.3428282262757421e-04</internalNodes>
          <leafValues>
            -8.4802174568176270e-01 1.1769885569810867e-01</leafValues></_>
        <_>
          <internalNodes>
            0 -1 24 1.2236733455210924e-03</internalNodes>
          <leafValues>
            1.4976474642753601e-01 -8.1677448749542236e-01</leafValues></_>
        <_>
          <internalNodes>
            0 -1 78 9.1860024258494377e-04</internalNodes>
          <leafValues>
            -3.6647310853004456e-01 3.2034236192703247e-01</leafValues></_>
        <_>
          <internalNodes>
            0 -1 133 -1.1863340660056565e-05</internalNodes>
          <leafValues>
            4.0163108706474304e-01 -3.2784941792488098e-01</leafValues></_>
        <_>
          <internalNodes>
            0 -1 99 4.7002144157886505e-02</internalNodes>
          <leafValues>
            -1.9517450034618378e-01 6.2010264396667480e-01</leafValues></_>
        <_>
          <internalNodes>
            0 -1 157 -3.7789024645462632e-04</internalNodes>
          <leafValues>
            5.5946975946426392e-01 -2.2226864099502563e-01</leafValues></_></weakClassifiers></_>
    <!-- stage 9 -->
    <_>
      <maxWeakCount>11</maxWeakCount>
      <stageThreshold>-1.2687335014343262e+00</stageThreshold>
      <weakClassifiers>
        <_>
          <internalNodes>
            0 -1 110 1.4645213261246681e-02</internalNodes>
          <leafValues>
            -5.6307691335678101e-01 3.4883719682693481e-01</leafValues></_>
        <_>
          <internalNodes>
            0 -1 1 -1.1161456350237131e-03</internalNodes>
          <leafValues>
            -6.5242564678192139e-01 9.6633903682231903e-02</leafValues></_>
        <_>
          <internalNodes>
            0 -1 30 1.2730497866868973e-02</internalNodes>
          <leafValues>
            -1.6772881150245667e-01 6.4610004425048828e-01</leafValues></_>
        <_>
          <internalNodes>
            0 -1 68 -3.1320599373430014e-03</internalNodes>
          <leafValues>
            6.6564321517944336e-01 -1.3786257803440094e-01</leafValues></_>
        <_>
          <internalNodes>
            0 -1 46 -3.5552665940485895e-04</internalNodes>
          <leafValues>
            3.5377261042594910e-01 -3.5176780819892883e-01</leafValues></_>
        <_>
          <internalNodes>
            0 -1 20 2.0787755493074656e-03</internalNodes>
          <leafValues>
            1.0154034942388535e-01 -7.7741277217864990e-01</leafValues></_>
        <_>
          <internalNodes>
            0 -1 154 -2.9884535819292068e-02</internalNodes>
          <leafValues>
            5.9130632877349854e-01 -1.8950580060482025e-01</leafValues></_>
        <_>
          <internalNodes>
            0 -1 176 3.8096792995929718e-03</internalNodes>
          <leafValues>
            -2.7088102698326111e-01 4.9506607651710510e-01</leafValues></_>
        <_>
          <internalNodes>
            0 -1 107 -5.4093182552605867e-04</internalNodes>
          <leafValues>
            2.8549519181251526e-01 -4.6901121735572815e-01</leafValues></_>
        <_>
          <internalNodes>
            0 -1 169 -6.0603069141507149e-04</internalNodes>
          <leafValues>
            -9.4149547815322876e-01 1.1994829028844833e-01</leafValues></_>
        <_>
          <internalNodes>
            0 -1 71 -9.4277951866388321e-03</internalNodes>
          <leafValues>
            6.0437035560607910e-01 -2.1783399581909180e-01</leafValues></_></weakClassifiers></_>
    <!-- stage 10 -->
    <_>
      <maxWeakCount>11</maxWeakCount>
      <stageThreshold>-1.3666796684265137e+00</stageThreshold>
      <weakClassifiers>
        <_>
          <internalNodes>
            0 -1 76 2.4298015050590038e-03</internalNodes>
          <leafValues>
            -6.0817718505859375e-01 1.4093959331512451e-01</leafValues></_>
        <_>
          <internalNodes>
            0 -1 34 1.5855425596237183e-01</internalNodes>
          <leafValues>
            -3.2875066995620728e-01 3.7766030430793762e-01</leafValues></_>
        <_>
          <internalNodes>
            0 -1 138 3.3511043875478208e-04</internalNodes>
          <leafValues>
            -3.4086966514587402e-01 3.3720314502716064e-01</leafValues></_>
        <_>
          <internalNodes>
            0 -1 151 6.6773104481399059e-04</internalNodes>
          <leafValues>
            -2.1573626995086670e-01 5.7371568679809570e-01</leafValues></_>
        <_>
          <internalNodes>
            0 -1 18 -5.9753707610070705e-03</internalNodes>
          <leafValues>
            2.7781552076339722e-01 -4.1922891139984131e-01</leafValues></_>
        <_>
          <internalNodes>
            0 -1 44 -1.2177726603113115e-04</internalNodes>
          <leafValues>
            3.0333057045936584e-01 -3.2107266783714294e-01</leafValues></_>
        <_>
          <internalNodes>
            0 -1 182 -3.8519985973834991e-03</internalNodes>
          <leafValues>
            -7.3425424098968506e-01 1.5080870687961578e-01</leafValues></_>
        <_>
          <internalNodes>
            0 -1 175 1.0408781236037612e-04</internalNodes>
          <leafValues>
            -3.1829455494880676e-01 3.8664489984512329e-01</leafValues></_>
        <_>
          <internalNodes>
            0 -1 66 1.2694825418293476e-03</internalNodes>
          <leafValues>
            -2.1590374410152435e-01 5.3896528482437134e-01</leafValues></_>
        <_>
          <internalNodes>
            0 -1 54 -5.8878905838355422e-04</internalNodes>
          <leafValues>
            4.1909158229827881e-01 -3.0067598819732666e-01</leafValues></_>
        <_>
          <internalNodes>
            0 -1 56 -4.1091982275247574e-03</internalNodes>
          <leafValues>
            -7.5326037406921387e-01 1.4923739433288574e-01</leafValues></_></weakClassifiers></_>
    <!-- stage 11 -->
    <_>
      <maxWeakCount>11</maxWeakCount>
      <stageThreshold>-1.4406300783157349e+00</stageThreshold>
      <weakClassifiers>
        <_>
          <internalNodes>
            0 -1 171 -1.3858079910278320e-03</internalNodes>
          <leafValues>
            2.4031007289886475e-01 -6.0461282730102539e-01</leafValues></_>
        <_>
          <internalNodes>
            0 -1 181 -3.7208944559097290e-04</internalNodes>
          <leafValues>
            -6.9181066751480103e-01 8.7490439414978027e-02</leafValues></_>
        <_>
          <internalNodes>
            0 -1 64 -6.6350221633911133e-02</internalNodes>
          <leafValues>
            1.3946510851383209e-01 -6.3557630777359009e-01</leafValues></_>
        <_>
          <internalNodes>
            0 -1 40 -6.0021756216883659e-03</internalNodes>
          <leafValues>
            7.4235850572586060e-01 -1.4699475467205048e-01</leafValues></_>
        <_>
          <internalNodes>
            0 -1 84 7.4265408329665661e-04</internalNodes>
          <leafValues>
            -4.2432612180709839e-01 2.5337910652160645e-01</leafValues></_>
        <_>
          <internalNodes>
            0 -1 21 -3.1406246125698090e-03</internalNodes>
          <leafValues>
            4.7984072566032410e-01 -2.3656865954399109e-01</leafValues></_>
        <_>
          <internalNodes>
            0 -1 69 4.2831973405554891e-04</internalNodes>
          <leafValues>
            -2.2311967611312866e-01 5.8308339118957520e-01</leafValues></_>
        <_>
          <internalNodes>
            0 -1 32 2.7797342045232654e-04</internalNodes>
          <leafValues>
            1.8771475553512573e-01 -6.3797420263290405e-01</leafValues></_>
        <_>
          <internalNodes>
            0 -1 3 -1.5142306219786406e-03</internalNodes>
          <leafValues>
            -7.2753310203552246e-01 1.6139839589595795e-01</leafValues></_>
        <_>
          <internalNodes>
            0 -1 72 7.3380898684263229e-03</internalNodes>
          <leafValues>
            -1.9210022687911987e-01 6.9980192184448242e-01</leafValues></_>
        <_>
          <internalNodes>
            0 -1 165 -1.9985342398285866e-02</internalNodes>
          <leafValues>
            4.9354019761085510e-01 -1.8897645175457001e-01</leafValues></_></weakClassifiers></_>
    <!-- stage 12 -->
    <_>
      <maxWeakCount>11</maxWeakCount>
      <stageThreshold>-1.3520799875259399e+00</stageThreshold>
      <weakClassifiers>
        <_>
          <internalNodes>
            0 -1 128 1.8229469656944275e-02</internalNodes>
          <leafValues>
            -6.1552029848098755e-01 7.6923079788684845e-02</leafValues></_>
        <_>
          <internalNodes>
            0 -1 12 6.9544324651360512e-04</internalNodes>
          <leafValues>
            -2.7841299772262573e-01 4.3677422404289246e-01</leafValues></_>
        <_>
          <internalNodes>
            0 -1 145 2.5735486997291446e-04</internalNodes>
          <leafValues>
            -2.9659959673881531e-01 3.2467505335807800e-01</leafValues></_>
        <_>
          <internalNodes>
            0 -1 2 2.4984741210937500e-01</internalNodes>
          <leafValues>
            -1.8769867718219757e-01 4.9425309896469116e-01</leafValues></_>
        <_>
          <internalNodes>
            0 -1 143 -3.6372817121446133e-03</internalNodes>
          <leafValues>
            5.4748320579528809e-01 -1.8826138973236084e-01</leafValues></_>
        <_>
          <internalNodes>
            0 -1 111 -5.6975282728672028e-02</internalNodes>
          <leafValues>
            -5.3495413064956665e-01 1.9694489240646362e-01</leafValues></_>
        <_>
          <internalNodes>
            0 -1 39 -2.8927640523761511e-03</internalNodes>
          <leafValues>
            5.9586060047149658e-01 -1.3739833235740662e-01</leafValues></_>
        <_>
          <internalNodes>
            0 -1 91 5.1053413189947605e-03</internalNodes>
          <leafValues>
            -2.2566658258438110e-01 4.5649737119674683e-01</leafValues></_>
        <_>
          <internalNodes>
            0 -1 0 -9.9635275546461344e-04</internalNodes>
          <leafValues>
            -8.4196847677230835e-01 1.2323633581399918e-01</leafValues></_>
        <_>
          <internalNodes>
            0 -1 5 2.3519463837146759e-01</internalNodes>
          <leafValues>
            -1.8851879239082336e-01 5.9600645303726196e-01</leafValues></_>
        <_>
          <internalNodes>
            0 -1 75 -4.4181723147630692e-02</internalNodes>
          <leafValues>
            4.2643395066261292e-01 -2.3634852468967438e-01</leafValues></_></weakClassifiers></_>
    <!-- stage 13 -->
    <_>
      <maxWeakCount>11</maxWeakCount>
      <stageThreshold>-1.2380791902542114e+00</stageThreshold>
      <weakClassifiers>
        <_>
          <internalNodes>
            0 -1 129 9.1264750808477402e-03</internalNodes>
          <leafValues>
            -5.8609271049499512e-01 1.3636364042758942e-01</leafValues></_>
        <_>
          <internalNodes>
            0 -1 158 -4.0574371814727783e-04</internalNodes>
          <leafValues>
            -7.0701479911804199e-01 5.9756640344858170e-02</leafValues></_>
        <_>
          <internalNodes>
            0 -1 134 -1.2233171146363020e-03</internalNodes>
          <leafValues>
            3.8777512311935425e-01 -2.2825723886489868e-01</leafValues></_>
        <_>
          <internalNodes>
            0 -1 67 -8.1830471754074097e-03</internalNodes>
          <leafValues>
            2.7965086698532104e-01 -3.9847236871719360e-01</leafValues></_>
        <_>
          <internalNodes>
            0 -1 95 6.1683063395321369e-03</internalNodes>
          <leafValues>
            1.2663640081882477e-01 -8.2017368078231812e-01</leafValues></_>
        <_>
          <internalNodes>
            0 -1 94 2.8999317437410355e-03</internalNodes>
          <leafValues>
            -2.4958951771259308e-01 5.3447604179382324e-01</leafValues></_>
        <_>
          <internalNodes>
            0 -1 77 1.0179407581745181e-05</internalNodes>
          <leafValues>
            -3.4531828761100769e-01 2.8893959522247314e-01</leafValues></_>
        <_>
          <internalNodes>
            0 -1 98 3.1635700725018978e-03</internalNodes>
          <leafValues>
            -3.1867763400077820e-01 3.0526572465896606e-01</leafValues></_>
        <_>
          <internalNodes>
            0 -1 120 6.3205227255821228e-02</internalNodes>
          <leafValues>
            1.2707948684692383e-01 -8.9413255453109741e-01</leafValues></_>
        <_>
          <internalNodes>
            0 -1 114 3.7194165633991361e-04</internalNodes>
          <leafValues>
            -2.1119399368762970e-01 4.6391597390174866e-01</leafValues></_>
        <_>
          <internalNodes>
            0 -1 185 -3.9467590977437794e-04</internalNodes>
          <leafValues>
            -9.2393296957015991e-01 1.0792676359415054e-01</leafValues></_></weakClassifiers></_>
    <!-- stage 14 -->
    <_>
      <maxWeakCount>13</maxWeakCount>
      <stageThreshold>-1.2521060705184937e+00</stageThreshold>
      <weakClassifiers>
        <_>
          <internalNodes>
            0 -1 113 8.5640605539083481e-03</internalNodes>
          <leafValues>
            -5.6714057922363281e-01 2.2330096364021301e-01</leafValues></_>
        <_>
          <internalNodes>
            0 -1 155 1.0475241579115391e-03</internalNodes>
          <leafValues>
            -2.8617638349533081e-01 3.4030815958976746e-01</leafValues></_>
        <_>
          <internalNodes>
            0 -1 45 1.6416987637057900e-03</internalNodes>
          <leafValues>
            1.2429577857255936e-01 -8.1969964504241943e-01</leafValues></_>
        <_>
          <internalNodes>
            0 -1 16 -1.3550819130614400e-03</internalNodes>
          <leafValues>
            3.7154865264892578e-01 -2.3945459723472595e-01</leafValues></_>
        <_>
          <internalNodes>
            0 -1 31 2.8639294207096100e-02</internalNodes>
          <leafValues>
            1.2045510113239288e-01 -7.5498110055923462e-01</leafValues></_>
        <_>
          <internalNodes>
            0 -1 152 -2.6242197491228580e-03</internalNodes>
          <leafValues>
            -6.1049687862396240e-01 1.4509041607379913e-01</leafValues></_>
        <_>
          <internalNodes>
            0 -1 117 -4.6222759410738945e-03</internalNodes>
          <leafValues>
            -6.3891673088073730e-01 1.1672987043857574e-01</leafValues></_>
        <_>
          <internalNodes>
            0 -1 149 -4.0305070579051971e-03</internalNodes>
          <leafValues>
            6.1952137947082520e-01 -1.5922749042510986e-01</leafValues></_>
        <_>
          <internalNodes>
            0 -1 178 2.1625962108373642e-04</internalNodes>
          <leafValues>
            -2.1948470175266266e-01 4.3995264172554016e-01</leafValues></_>
        <_>
          <internalNodes>
            0 -1 123 5.8420871937414631e-05</internalNodes>
          <leafValues>
            -4.2861616611480713e-01 2.3168732225894928e-01</leafValues></_>
        <_>
          <internalNodes>
            0 -1 156 6.8005133653059602e-04</internalNodes>
          <leafValues>
            -1.9362626969814301e-01 4.6904289722442627e-01</leafValues></_>
        <_>
          <internalNodes>
            0 -1 184 -6.4258195925503969e-04</internalNodes>
          <leafValues>
            -6.3577526807785034e-01 1.5782347321510315e-01</leafValues></_>
        <_>
          <internalNodes>
            0 -1 121 1.6965154791250825e-03</internalNodes>
          <leafValues>
            -3.3849400281906128e-01 3.0097970366477966e-01</leafValues></_></weakClassifiers></_>
    <!-- stage 15 -->
    <_>
      <maxWeakCount>12</maxWeakCount>
      <stageThreshold>-1.3628772497177124e+00</stageThreshold>
      <weakClassifiers>
        <_>
          <internalNodes>
            0 -1 153 2.4759131483733654e-03</internalNodes>
          <leafValues>
            -5.6426334381103516e-01 2.4489796161651611e-01</leafValues></_>
        <_>
          <internalNodes>
            0 -1 124 1.0984038235619664e-03</internalNodes>
          <leafValues>
            1.0662002861499786e-01 -6.2901765108108521e-01</leafValues></_>
        <_>
          <internalNodes>
            0 -1 147 -1.2676655314862728e-03</internalNodes>
          <leafValues>
            -6.0641497373580933e-01 1.2710209190845490e-01</leafValues></_>
        <_>
          <internalNodes>
            0 -1 109 6.0644093900918961e-04</internalNodes>
          <leafValues>
            -3.6024221777915955e-01 2.4404400587081909e-01</leafValues></_>
        <_>
          <internalNodes>
            0 -1 14 -3.2702609896659851e-03</internalNodes>
          <leafValues>
            3.5621416568756104e-01 -2.8640323877334595e-01</leafValues></_>
        <_>
          <internalNodes>
            0 -1 161 2.8407168574631214e-03</internalNodes>
          <leafValues>
            1.3390602171421051e-01 -7.6149529218673706e-01</leafValues></_>
        <_>
          <internalNodes>
            0 -1 164 -5.8117751032114029e-03</internalNodes>
          <leafValues>
            5.5668658018112183e-01 -2.1077756583690643e-01</leafValues></_>
        <_>
          <internalNodes>
            0 -1 166 3.9792535826563835e-03</internalNodes>
          <leafValues>
            -1.9963517785072327e-01 5.1787990331649780e-01</leafValues></_>
        <_>
          <internalNodes>
            0 -1 29 -1.1128110345453024e-03</internalNodes>
          <leafValues>
            -7.1571546792984009e-01 1.5083029866218567e-01</leafValues></_>
        <_>
          <internalNodes>
            0 -1 126 -1.4800665667280555e-03</internalNodes>
          <leafValues>
            4.1528093814849854e-01 -2.4462422728538513e-01</leafValues></_>
        <_>
          <internalNodes>
            0 -1 122 -2.1820620531798340e-05</internalNodes>
          <leafValues>
            2.9887205362319946e-01 -3.4275484085083008e-01</leafValues></_>
        <_>
          <internalNodes>
            0 -1 90 -5.2751143812201917e-05</internalNodes>
          <leafValues>
            -4.6367380023002625e-01 2.2847567498683929e-01</leafValues></_></weakClassifiers></_>
    <!-- stage 16 -->
    <_>
      <maxWeakCount>13</maxWeakCount>
      <stageThreshold>-1.3373694419860840e+00</stageThreshold>
      <weakClassifiers>
        <_>
          <internalNodes>
            0 -1 179 -2.0432707970030606e-04</internalNodes>
          <leafValues>
            -3.5175878554582596e-02 -6.1266297101974487e-01</leafValues></_>
        <_>
          <internalNodes>
            0 -1 10 1.2259874492883682e-03</internalNodes>
          <leafValues>
            -3.1867763400077820e-01 2.7560541033744812e-01</leafValues></_>
        <_>
          <internalNodes>
            0 -1 33 2.2343536838889122e-03</internalNodes>
          <leafValues>
            1.4077909290790558e-01 -6.2919330596923828e-01</leafValues></_>
        <_>
          <internalNodes>
            0 -1 13 1.4385650865733624e-03</internalNodes>
          <leafValues>
            1.8118165433406830e-01 -5.7308959960937500e-01</leafValues></_>
        <_>
          <internalNodes>
            0 -1 38 -1.5679242089390755e-02</internalNodes>
          <leafValues>
            5.7237064838409424e-01 -1.8810513615608215e-01</leafValues></_>
        <_>
          <internalNodes>
            0 -1 47 1.4753616414964199e-04</internalNodes>
          <leafValues>
            -2.5049269199371338e-01 3.7547200918197632e-01</leafValues></_>
        <_>
          <internalNodes>
            0 -1 60 -4.5493617653846741e-03</internalNodes>
          <leafValues>
            4.1273170709609985e-01 -2.5572133064270020e-01</leafValues></_>
        <_>
          <internalNodes>
            0 -1 79 1.2196010351181030e-01</internalNodes>
          <leafValues>
            1.1048297584056854e-01 -8.5018581151962280e-01</leafValues></_>
        <_>
          <internalNodes>
            0 -1 49 5.7749124243855476e-04</internalNodes>
          <leafValues>
            1.3471281528472900e-01 -6.2524861097335815e-01</leafValues></_>
        <_>
          <internalNodes>
            0 -1 106 7.9436140367761254e-04</internalNodes>
          <leafValues>
            1.7093557119369507e-01 -5.2405989170074463e-01</leafValues></_>
        <_>
          <internalNodes>
            0 -1 28 2.9398126062005758e-03</internalNodes>
          <leafValues>
            -2.2852426767349243e-01 4.4813644886016846e-01</leafValues></_>
        <_>
          <internalNodes>
            0 -1 82 8.2251208368688822e-04</internalNodes>
          <leafValues>
            -1.8520630896091461e-01 5.0643068552017212e-01</leafValues></_>
        <_>
          <internalNodes>
            0 -1 11 1.2834071181714535e-02</internalNodes>
          <leafValues>
            1.2391690909862518e-01 -8.6906498670578003e-01</leafValues></_></weakClassifiers></_>
    <!-- stage 17 -->
    <_>
      <maxWeakCount>12</maxWeakCount>
      <stageThreshold>-1.0407936573028564e+00</stageThreshold>
      <weakClassifiers>
        <_>
          <internalNodes>
            0 -1 168 4.9648323329165578e-04</internalNodes>
          <leafValues>
            -6.0000002384185791e-01 7.2542978714736978e-18</leafValues></_>
        <_>
          <internalNodes>
            0 -1 8 -2.8376322239637375e-02</internalNodes>
          <leafValues>
            4.3162995576858521e-01 -2.5076928734779358e-01</leafValues></_>
        <_>
          <internalNodes>
            0 -1 22 -3.7952698767185211e-03</internalNodes>
          <leafValues>
            3.1144216656684875e-01 -2.6285558938980103e-01</leafValues></_>
        <_>
          <internalNodes>
            0 -1 93 -2.4425233714282513e-03</internalNodes>
          <leafValues>
            5.0817060470581055e-01 -2.0198398828506470e-01</leafValues></_>
        <_>
          <internalNodes>
            0 -1 52 -1.1347685940563679e-03</internalNodes>
          <leafValues>
            -6.1696386337280273e-01 1.4786040782928467e-01</leafValues></_>
        <_>
          <internalNodes>
            0 -1 65 -4.8604113981127739e-03</internalNodes>
          <leafValues>
            7.4543899297714233e-01 -1.2948246300220490e-01</leafValues></_>
        <_>
          <internalNodes>
            0 -1 141 5.8659340720623732e-04</internalNodes>
          <leafValues>
            -1.9638231396675110e-01 4.8597362637519836e-01</leafValues></_>
        <_>
          <internalNodes>
            0 -1 180 -6.7890170612372458e-05</internalNodes>
          <leafValues>
            3.3297264575958252e-01 -3.0285531282424927e-01</leafValues></_>
        <_>
          <internalNodes>
            0 -1 41 -1.3368790969252586e-02</internalNodes>
          <leafValues>
            6.5591579675674438e-01 -1.6795131564140320e-01</leafValues></_>
        <_>
          <internalNodes>
            0 -1 92 1.3481432688422501e-04</internalNodes>
          <leafValues>
            -2.1062305569648743e-01 4.5192468166351318e-01</leafValues></_>
        <_>
          <internalNodes>
            0 -1 159 1.6030718688853085e-04</internalNodes>
          <leafValues>
            1.6199624538421631e-01 -6.4238631725311279e-01</leafValues></_>
        <_>
          <internalNodes>
            0 -1 6 -1.9841929897665977e-03</internalNodes>
          <leafValues>
            5.1296979188919067e-01 -2.0197564363479614e-01</leafValues></_></weakClassifiers></_>
    <!-- stage 18 -->
    <_>
      <maxWeakCount>10</maxWeakCount>
      <stageThreshold>-1.1496932506561279e+00</stageThreshold>
      <weakClassifiers>
        <_>
          <internalNodes>
            0 -1 183 2.9103783890604973e-03</internalNodes>
          <leafValues>
            -5.7961785793304443e-01 2.5925925374031067e-01</leafValues></_>
        <_>
          <internalNodes>
            0 -1 83 6.4289364963769913e-03</internalNodes>
          <leafValues>
            -2.4311217665672302e-01 4.6208363771438599e-01</leafValues></_>
        <_>
          <internalNodes>
            0 -1 81 -1.6020499169826508e-03</internalNodes>
          <leafValues>
            2.8556635975837708e-01 -3.5115545988082886e-01</leafValues></_>
        <_>
          <internalNodes>
            0 -1 48 -5.9650710318237543e-04</internalNodes>
          <leafValues>
            -7.1123784780502319e-01 1.3576219975948334e-01</leafValues></_>
        <_>
          <internalNodes>
            0 -1 59 2.0816095639020205e-03</internalNodes>
          <leafValues>
            -1.4707231521606445e-01 6.9669598340988159e-01</leafValues></_>
        <_>
          <internalNodes>
            0 -1 188 -2.5235425709979609e-05</internalNodes>
          <leafValues>
            4.1424226760864258e-01 -3.1609770655632019e-01</leafValues></_>
        <_>
          <internalNodes>
            0 -1 50 -2.5519233531667851e-05</internalNodes>
          <leafValues>
            2.9117706418037415e-01 -3.8044768571853638e-01</leafValues></_>
        <_>
          <internalNodes>
            0 -1 25 -5.7341018691658974e-03</internalNodes>
          <leafValues>
            -7.3439991474151611e-01 2.0342443883419037e-01</leafValues></_>
        <_>
          <internalNodes>
            0 -1 100 1.8622836098074913e-02</internalNodes>
          <leafValues>
            1.0480394214391708e-01 -7.4168580770492554e-01</leafValues></_>
        <_>
          <internalNodes>
            0 -1 144 5.7028525043278933e-04</internalNodes>
          <leafValues>
            -2.1290238201618195e-01 6.2535136938095093e-01</leafValues></_></weakClassifiers></_>
    <!-- stage 19 -->
    <_>
      <maxWeakCount>13</maxWeakCount>
      <stageThreshold>-1.3272945880889893e+00</stageThreshold>
      <weakClassifiers>
        <_>
          <internalNodes>
            0 -1 136 3.8399584591388702e-03</internalNodes>
          <leafValues>
            -6.3453817367553711e-01 -8.4033615887165070e-02</leafValues></_>
        <_>
          <internalNodes>
            0 -1 108 4.1620171396061778e-04</internalNodes>
          <leafValues>
            -3.6393719911575317e-01 2.0083534717559814e-01</leafValues></_>
        <_>
          <internalNodes>
            0 -1 53 5.7805040851235390e-03</internalNodes>
          <leafValues>
            1.6309043765068054e-01 -5.1076209545135498e-01</leafValues></_>
        <_>
          <internalNodes>
            0 -1 135 -3.0341627279995009e-05</internalNodes>
          <leafValues>
            3.0073034763336182e-01 -3.8041180372238159e-01</leafValues></_>
        <_>
          <internalNodes>
            0 -1 61 9.6060760552063584e-04</internalNodes>
          <leafValues>
            1.2077029794454575e-01 -6.6185456514358521e-01</leafValues></_>
        <_>
          <internalNodes>
            0 -1 36 -1.5014829114079475e-03</internalNodes>
          <leafValues>
            6.1449569463729858e-01 -1.9948215782642365e-01</leafValues></_>
        <_>
          <internalNodes>
            0 -1 73 -1.4394007157534361e-03</internalNodes>
          <leafValues>
            5.8785021305084229e-01 -1.7944976687431335e-01</leafValues></_>
        <_>
          <internalNodes>
            0 -1 125 1.0347198694944382e-02</internalNodes>
          <leafValues>
            -2.9198688268661499e-01 3.6664327979087830e-01</leafValues></_>
        <_>
          <internalNodes>
            0 -1 80 -2.8064989601261914e-04</internalNodes>
          <leafValues>
            3.9465188980102539e-01 -2.6452225446701050e-01</leafValues></_>
        <_>
          <internalNodes>
            0 -1 89 1.0781345190480351e-03</internalNodes>
          <leafValues>
            -3.0805242061614990e-01 3.6286103725433350e-01</leafValues></_>
        <_>
          <internalNodes>
            0 -1 35 -1.4564889669418335e-01</internalNodes>
          <leafValues>
            2.9431101679801941e-01 -3.4620764851570129e-01</leafValues></_>
        <_>
          <internalNodes>
            0 -1 142 9.9101409432478249e-05</internalNodes>
          <leafValues>
            -2.8528437018394470e-01 4.2339333891868591e-01</leafValues></_>
        <_>
          <internalNodes>
            0 -1 87 6.2863393686711788e-03</internalNodes>
          <leafValues>
            -3.1545662879943848e-01 3.8994634151458740e-01</leafValues></_></weakClassifiers></_></stages>
  <features>
    <_>
      <rects>
        <_>
          0 0 4 2 -1.</_>
        <_>
          0 0 2 1 2.</_>
        <_>
          2 1 2 1 2.</_></rects>
      <tilted>0</tilted></_>
    <_>
      <rects>
        <_>
          0 0 4 2 -1.</_>
        <_>
          2 0 2 2 2.</_></rects>
      <tilted>0</tilted></_>
    <_>
      <rects>
        <_>
          0 0 24 24 -1.</_>
        <_>
          8 0 8 24 3.</_></rects>
      <tilted>0</tilted></_>
    <_>
      <rects>
        <_>
          0 1 3 2 -1.</_>
        <_>
          0 2 3 1 2.</_></rects>
      <tilted>0</tilted></_>
    <_>
      <rects>
        <_>
          0 2 12 4 -1.</_>
        <_>
          6 2 6 4 2.</_></rects>
      <tilted>0</tilted></_>
    <_>
      <rects>
        <_>
          0 2 24 10 -1.</_>
        <_>
          8 2 8 10 3.</_></rects>
      <tilted>0</tilted></_>
    <_>
      <rects>
        <_>
          0 2 10 3 -1.</_>
        <_>
          0 3 10 1 3.</_></rects>
      <tilted>0</tilted></_>
    <_>
      <rects>
        <_>
          0 4 2 10 -1.</_>
        <_>
          1 4 1 10 2.</_></rects>
      <tilted>0</tilted></_>
    <_>
      <rects>
        <_>
          0 4 6 14 -1.</_>
        <_>
          0 4 3 7 2.</_>
        <_>
          3 11 3 7 2.</_></rects>
      <tilted>0</tilted></_>
    <_>
      <rects>
        <_>
          0 4 8 20 -1.</_>
        <_>
          0 4 4 10 2.</_>
        <_>
          4 14 4 10 2.</_></rects>
      <tilted>0</tilted></_>
    <_>
      <rects>
        <_>
          0 5 16 3 -1.</_>
        <_>
          0 6 16 1 3.</_></rects>
      <tilted>0</tilted></_>
    <_>
      <rects>
        <_>
          0 8 2 9 -1.</_>
        <_>
          0 11 2 3 3.</_></rects>
      <tilted>0</tilted></_>
    <_>
      <rects>
        <_>
          0 9 2 1 -1.</_>
        <_>
          1 9 1 1 2.</_></rects>
      <tilted>0</tilted></_>
    <_>
      <rects>
        <_>
          0 9 3 3 -1.</_>
        <_>
          0 10 3 1 3.</_></rects>
      <tilted>0</tilted></_>
    <_>
      <rects>
        <_>
          0 9 20 2 -1.</_>
        <_>
          0 10 20 1 2.</_></rects>
      <tilted>0</tilted></_>
    <_>
      <rects>
        <_>
          0 10 3 8 -1.</_>
        <_>
          1 10 1 8 3.</_></rects>
      <tilted>0</tilted></_>
    <_>
      <rects>
        <_>
          0 11 21 3 -1.</_>
        <_>
          0 12 21 1 3.</_></rects>
      <tilted>0</tilted></_>
    <_>
      <rects>
        <_>
          0 12 3 3 -1.</_>
        <_>
          1 12 1 3 3.</_></rects>
      <tilted>0</tilted></_>
    <_>
      <rects>
        <_>
          0 12 10 10 -1.</_>
        <_>
          0 12 5 5 2.</_>
        <_>
          5 17 5 5 2.</_></rects>
      <tilted>0</tilted></_>
    <_>
      <rects>
        <_>
          0 13 8 8 -1.</_>
        <_>
          0 13 4 4 2.</_>
        <_>
          4 17 4 4 2.</_></rects>
      <tilted>0</tilted></_>
    <_>
      <rects>
        <_>
          0 16 1 6 -1.</_>
        <_>
          0 18 1 2 3.</_></rects>
      <tilted>0</tilted></_>
    <_>
      <rects>
        <_>
          0 16 6 4 -1.</_>
        <_>
          0 16 3 2 2.</_>
        <_>
          3 18 3 2 2.</_></rects>
      <tilted>0</tilted></_>
    <_>
      <rects>
        <_>
          0 17 8 4 -1.</_>
        <_>
          0 17 4 2 2.</_>
        <_>
          4 19 4 2 2.</_></rects>
      <tilted>0</tilted></_>
    <_>
      <rects>
        <_>
          0 17 12 6 -1.</_>
        <_>
          0 17 6 3 2.</_>
        <_>
          6 20 6 3 2.</_></rects>
      <tilted>0</tilted></_>
    <_>
      <rects>
        <_>
          0 20 2 2 -1.</_>
        <_>
          1 20 1 2 2.</_></rects>
      <tilted>0</tilted></_>
    <_>
      <rects>
        <_>
          0 20 4 4 -1.</_>
        <_>
          2 20 2 4 2.</_></rects>
      <tilted>0</tilted></_>
    <_>
      <rects>
        <_>
          0 21 2 1 -1.</_>
        <_>
          1 21 1 1 2.</_></rects>
      <tilted>0</tilted></_>
    <_>
      <rects>
        <_>
          0 22 8 1 -1.</_>
        <_>
          4 22 4 1 2.</_></rects>
      <tilted>0</tilted></_>
    <_>
      <rects>
        <_>
          1 0 2 12 -1.</_>
        <_>
          1 0 1 6 2.</_>
        <_>
          2 6 1 6 2.</_></rects>
      <tilted>0</tilted></_>
    <_>
      <rects>
        <_>
          1 0 6 1 -1.</_>
        <_>
          3 0 2 1 3.</_></rects>
      <tilted>0</tilted></_>
    <_>
      <rects>
        <_>
          1 0 4 8 -1.</_>
        <_>
          1 0 2 4 2.</_>
        <_>
          3 4 2 4 2.</_></rects>
      <tilted>0</tilted></_>
    <_>
      <rects>
        <_>
          1 0 12 24 -1.</_>
        <_>
          1 0 6 12 2.</_>
        <_>
          7 12 6 12 2.</_></rects>
      <tilted>0</tilted></_>
    <_>
      <rects>
        <_>
          1 1 1 2 -1.</_>
        <_>
          1 2 1 1 2.</_></rects>
      <tilted>0</tilted></_>
    <_>
      <rects>
        <_>
          1 1 6 1 -1.</_>
        <_>
          3 1 2 1 3.</_></rects>
      <tilted>0</tilted></_>
    <_>
      <rects>
        <_>
          1 1 21 15 -1.</_>
        <_>
          1 6 21 5 3.</_></rects>
      <tilted>0</tilted></_>
    <_>
      <rects>
        <_>
          1 3 13 18 -1.</_>
        <_>
          1 12 13 9 2.</_></rects>
      <tilted>0</tilted></_>
    <_>
      <rects>
        <_>
          1 6 2 4 -1.</_>
        <_>
          1 6 1 2 2.</_>
        <_>
          2 8 1 2 2.</_></rects>
      <tilted>0</tilted></_>
    <_>
      <rects>
        <_>
          1 6 4 2 -1.</_>
        <_>
          1 6 2 1 2.</_>
        <_>
          3 7 2 1 2.</_></rects>
      <tilted>0</tilted></_>
    <_>
      <rects>
        <_>
          1 8 6 8 -1.</_>
        <_>
          3 8 2 8 3.</_></rects>
      <tilted>0</tilted></_>
    <_>
      <rects>
        <_>
          1 10 3 3 -1.</_>
        <_>
          2 10 1 3 3.</_></rects>
      <tilted>0</tilted></_>
    <_>
      <rects>
        <_>
          1 11 3 4 -1.</_>
        <_>
          2 11 1 4 3.</_></rects>
      <tilted>0</tilted></_>
    <_>
      <rects>
        <_>
          1 11 4 8 -1.</_>
        <_>
          1 11 2 4 2.</_>
        <_>
          3 15 2 4 2.</_></rects>
      <tilted>0</tilted></_>
    <_>
      <rects>
        <_>
          1 12 3 3 -1.</_>
        <_>
          2 12 1 3 3.</_></rects>
      <tilted>0</tilted></_>
    <_>
      <rects>
        <_>
          1 13 2 6 -1.</_>
        <_>
          1 13 1 3 2.</_>
        <_>
          2 16 1 3 2.</_></rects>
      <tilted>0</tilted></_>
    <_>
      <rects>
        <_>
          1 13 3 2 -1.</_>
        <_>
          1 14 3 1 2.</_></rects>
      <tilted>0</tilted></_>
    <_>
      <rects>
        <_>
          1 13 3 3 -1.</_>
        <_>
          1 14 3 1 3.</_></rects>
      <tilted>0</tilted></_>
    <_>
      <rects>
        <_>
          1 14 7 2 -1.</_>
        <_>
          1 15 7 1 2.</_></rects>
      <tilted>0</tilted></_>
    <_>
      <rects>
        <_>
          1 18 4 1 -1.</_>
        <_>
          3 18 2 1 2.</_></rects>
      <tilted>0</tilted></_>
    <_>
      <rects>
        <_>
          1 20 2 4 -1.</_>
        <_>
          1 20 1 2 2.</_>
        <_>
          2 22 1 2 2.</_></rects>
      <tilted>0</tilted></_>
    <_>
      <rects>
        <_>
          1 22 3 2 -1.</_>
        <_>
          2 22 1 2 3.</_></rects>
      <tilted>0</tilted></_>
    <_>
      <rects>
        <_>
          1 23 4 1 -1.</_>
        <_>
          3 23 2 1 2.</_></rects>
      <tilted>0</tilted></_>
    <_>
      <rects>
        <_>
          1 23 6 1 -1.</_>
        <_>
          3 23 2 1 3.</_></rects>
      <tilted>0</tilted></_>
    <_>
      <rects>
        <_>
          2 0 6 1 -1.</_>
        <_>
          4 0 2 1 3.</_></rects>
      <tilted>0</tilted></_>
    <_>
      <rects>
        <_>
          2 2 22 2 -1.</_>
        <_>
          2 2 11 1 2.</_>
        <_>
          13 3 11 1 2.</_></rects>
      <tilted>0</tilted></_>
    <_>
      <rects>
        <_>
          2 4 2 8 -1.</_>
        <_>
          2 4 1 4 2.</_>
        <_>
          3 8 1 4 2.</_></rects>
      <tilted>0</tilted></_>
    <_>
      <rects>
        <_>
          2 4 4 4 -1.</_>
        <_>
          2 4 2 2 2.</_>
        <_>
          4 6 2 2 2.</_></rects>
      <tilted>0</tilted></_>
    <_>
      <rects>
        <_>
          2 4 22 2 -1.</_>
        <_>
          2 4 11 1 2.</_>
        <_>
          13 5 11 1 2.</_></rects>
      <tilted>0</tilted></_>
    <_>
      <rects>
        <_>
          2 6 20 18 -1.</_>
        <_>
          2 15 20 9 2.</_></rects>
      <tilted>0</tilted></_>
    <_>
      <rects>
        <_>
          2 11 3 1 -1.</_>
        <_>
          3 11 1 1 3.</_></rects>
      <tilted>0</tilted></_>
    <_>
      <rects>
        <_>
          2 14 2 6 -1.</_>
        <_>
          2 14 1 3 2.</_>
        <_>
          3 17 1 3 2.</_></rects>
      <tilted>0</tilted></_>
    <_>
      <rects>
        <_>
          2 18 9 3 -1.</_>
        <_>
          5 18 3 3 3.</_></rects>
      <tilted>0</tilted></_>
    <_>
      <rects>
        <_>
          3 0 4 1 -1.</_>
        <_>
          5 0 2 1 2.</_></rects>
      <tilted>0</tilted></_>
    <_>
      <rects>
        <_>
          3 0 2 2 -1.</_>
        <_>
          3 1 2 1 2.</_></rects>
      <tilted>0</tilted></_>
    <_>
      <rects>
        <_>
          3 1 21 7 -1.</_>
        <_>
          10 1 7 7 3.</_></rects>
      <tilted>0</tilted></_>
    <_>
      <rects>
        <_>
          3 1 10 22 -1.</_>
        <_>
          3 12 10 11 2.</_></rects>
      <tilted>0</tilted></_>
    <_>
      <rects>
        <_>
          3 2 8 2 -1.</_>
        <_>
          3 2 4 1 2.</_>
        <_>
          7 3 4 1 2.</_></rects>
      <tilted>0</tilted></_>
    <_>
      <rects>
        <_>
          3 4 2 8 -1.</_>
        <_>
          3 4 1 4 2.</_>
        <_>
          4 8 1 4 2.</_></rects>
      <tilted>0</tilted></_>
    <_>
      <rects>
        <_>
          3 9 2 14 -1.</_>
        <_>
          3 16 2 7 2.</_></rects>
      <tilted>0</tilted></_>
    <_>
      <rects>
        <_>
          3 16 2 3 -1.</_>
        <_>
          4 16 1 3 2.</_></rects>
      <tilted>0</tilted></_>
    <_>
      <rects>
        <_>
          3 17 2 2 -1.</_>
        <_>
          3 17 1 1 2.</_>
        <_>
          4 18 1 1 2.</_></rects>
      <tilted>0</tilted></_>
    <_>
      <rects>
        <_>
          3 17 6 6 -1.</_>
        <_>
          3 17 3 3 2.</_>
        <_>
          6 20 3 3 2.</_></rects>
      <tilted>0</tilted></_>
    <_>
      <rects>
        <_>
          3 18 6 4 -1.</_>
        <_>
          3 18 3 2 2.</_>
        <_>
          6 20 3 2 2.</_></rects>
      <tilted>0</tilted></_>
    <_>
      <rects>
        <_>
          4 0 4 4 -1.</_>
        <_>
          4 0 2 2 2.</_>
        <_>
          6 2 2 2 2.</_></rects>
      <tilted>0</tilted></_>
    <_>
      <rects>
        <_>
          4 0 13 2 -1.</_>
        <_>
          4 1 13 1 2.</_></rects>
      <tilted>0</tilted></_>
    <_>
      <rects>
        <_>
          4 1 2 6 -1.</_>
        <_>
          4 1 1 3 2.</_>
        <_>
          5 4 1 3 2.</_></rects>
      <tilted>0</tilted></_>
    <_>
      <rects>
        <_>
          4 1 12 23 -1.</_>
        <_>
          8 1 4 23 3.</_></rects>
      <tilted>0</tilted></_>
    <_>
      <rects>
        <_>
          4 2 3 2 -1.</_>
        <_>
          4 3 3 1 2.</_></rects>
      <tilted>0</tilted></_>
    <_>
      <rects>
        <_>
          4 8 1 3 -1.</_>
        <_>
          4 9 1 1 3.</_></rects>
      <tilted>0</tilted></_>
    <_>
      <rects>
        <_>
          4 11 6 2 -1.</_>
        <_>
          6 11 2 2 3.</_></rects>
      <tilted>0</tilted></_>
    <_>
      <rects>
        <_>
          4 11 20 12 -1.</_>
        <_>
          4 11 10 6 2.</_>
        <_>
          14 17 10 6 2.</_></rects>
      <tilted>0</tilted></_>
    <_>
      <rects>
        <_>
          4 12 6 4 -1.</_>
        <_>
          4 12 3 2 2.</_>
        <_>
          7 14 3 2 2.</_></rects>
      <tilted>0</tilted></_>
    <_>
      <rects>
        <_>
          4 18 4 6 -1.</_>
        <_>
          4 18 2 3 2.</_>
        <_>
          6 21 2 3 2.</_></rects>
      <tilted>0</tilted></_>
    <_>
      <rects>
        <_>
          4 19 4 2 -1.</_>
        <_>
          4 19 2 1 2.</_>
        <_>
          6 20 2 1 2.</_></rects>
      <tilted>0</tilted></_>
    <_>
      <rects>
        <_>
          5 0 1 9 -1.</_>
        <_>
          5 3 1 3 3.</_></rects>
      <tilted>0</tilted></_>
    <_>
      <rects>
        <_>
          5 0 12 2 -1.</_>
        <_>
          9 0 4 2 3.</_></rects>
      <tilted>0</tilted></_>
    <_>
      <rects>
        <_>
          5 0 15 4 -1.</_>
        <_>
          5 2 15 2 2.</_></rects>
      <tilted>0</tilted></_>
    <_>
      <rects>
        <_>
          5 1 9 5 -1.</_>
        <_>
          8 1 3 5 3.</_></rects>
      <tilted>0</tilted></_>
    <_>
      <rects>
        <_>
          5 1 14 3 -1.</_>
        <_>
          5 2 14 1 3.</_></rects>
      <tilted>0</tilted></_>
    <_>
      <rects>
        <_>
          5 2 7 22 -1.</_>
        <_>
          5 13 7 11 2.</_></rects>
      <tilted>0</tilted></_>
    <_>
      <rects>
        <_>
          5 4 6 4 -1.</_>
        <_>
          7 4 2 4 3.</_></rects>
      <tilted>0</tilted></_>
    <_>
      <rects>
        <_>
          5 7 3 1 -1.</_>
        <_>
          6 7 1 1 3.</_></rects>
      <tilted>0</tilted></_>
    <_>
      <rects>
        <_>
          5 17 6 4 -1.</_>
        <_>
          7 17 2 4 3.</_></rects>
      <tilted>0</tilted></_>
    <_>
      <rects>
        <_>
          5 20 3 1 -1.</_>
        <_>
          6 20 1 1 3.</_></rects>
      <tilted>0</tilted></_>
    <_>
      <rects>
        <_>
          5 21 6 2 -1.</_>
        <_>
          5 22 6 1 2.</_></rects>
      <tilted>0</tilted></_>
    <_>
      <rects>
        <_>
          5 22 10 2 -1.</_>
        <_>
          5 22 5 1 2.</_>
        <_>
          10 23 5 1 2.</_></rects>
      <tilted>0</tilted></_>
    <_>
      <rects>
        <_>
          5 23 10 1 -1.</_>
        <_>
          10 23 5 1 2.</_></rects>
      <tilted>0</tilted></_>
    <_>
      <rects>
        <_>
          6 0 16 10 -1.</_>
        <_>
          6 0 8 5 2.</_>
        <_>
          14 5 8 5 2.</_></rects>
      <tilted>0</tilted></_>
    <_>
      <rects>
        <_>
          6 1 6 3 -1.</_>
        <_>
          6 2 6 1 3.</_></rects>
      <tilted>0</tilted></_>
    <_>
      <rects>
        <_>
          6 1 15 3 -1.</_>
        <_>
          6 2 15 1 3.</_></rects>
      <tilted>0</tilted></_>
    <_>
      <rects>
        <_>
          6 9 15 8 -1.</_>
        <_>
          11 9 5 8 3.</_></rects>
      <tilted>0</tilted></_>
    <_>
      <rects>
        <_>
          6 12 18 4 -1.</_>
        <_>
          6 12 9 2 2.</_>
        <_>
          15 14 9 2 2.</_></rects>
      <tilted>0</tilted></_>
    <_>
      <rects>
        <_>
          6 13 15 9 -1.</_>
        <_>
          11 13 5 9 3.</_></rects>
      <tilted>0</tilted></_>
    <_>
      <rects>
        <_>
          6 16 4 6 -1.</_>
        <_>
          6 16 2 3 2.</_>
        <_>
          8 19 2 3 2.</_></rects>
      <tilted>0</tilted></_>
    <_>
      <rects>
        <_>
          7 1 3 3 -1.</_>
        <_>
          7 2 3 1 3.</_></rects>
      <tilted>0</tilted></_>
    <_>
      <rects>
        <_>
          7 1 8 22 -1.</_>
        <_>
          7 12 8 11 2.</_></rects>
      <tilted>0</tilted></_>
    <_>
      <rects>
        <_>
          7 4 10 2 -1.</_>
        <_>
          7 5 10 1 2.</_></rects>
      <tilted>0</tilted></_>
    <_>
      <rects>
        <_>
          7 12 4 2 -1.</_>
        <_>
          7 12 2 1 2.</_>
        <_>
          9 13 2 1 2.</_></rects>
      <tilted>0</tilted></_>
    <_>
      <rects>
        <_>
          7 22 12 2 -1.</_>
        <_>
          11 22 4 2 3.</_></rects>
      <tilted>0</tilted></_>
    <_>
      <rects>
        <_>
          7 23 12 1 -1.</_>
        <_>
          13 23 6 1 2.</_></rects>
      <tilted>0</tilted></_>
    <_>
      <rects>
        <_>
          8 0 6 7 -1.</_>
        <_>
          10 0 2 7 3.</_></rects>
      <tilted>0</tilted></_>
    <_>
      <rects>
        <_>
          8 0 9 2 -1.</_>
        <_>
          8 1 9 1 2.</_></rects>
      <tilted>0</tilted></_>
    <_>
      <rects>
        <_>
          8 3 14 11 -1.</_>
        <_>
          15 3 7 11 2.</_></rects>
      <tilted>0</tilted></_>
    <_>
      <rects>
        <_>
          8 8 12 3 -1.</_>
        <_>
          12 8 4 3 3.</_></rects>
      <tilted>0</tilted></_>
    <_>
      <rects>
        <_>
          9 0 7 3 -1.</_>
        <_>
          9 1 7 1 3.</_></rects>
      <tilted>0</tilted></_>
    <_>
      <rects>
        <_>
          9 12 2 2 -1.</_>
        <_>
          9 12 1 1 2.</_>
        <_>
          10 13 1 1 2.</_></rects>
      <tilted>0</tilted></_>
    <_>
      <rects>
        <_>
          9 20 8 3 -1.</_>
        <_>
          9 21 8 1 3.</_></rects>
      <tilted>0</tilted></_>
    <_>
      <rects>
        <_>
          9 20 13 2 -1.</_>
        <_>
          9 21 13 1 2.</_></rects>
      <tilted>0</tilted></_>
    <_>
      <rects>
        <_>
          9 23 9 1 -1.</_>
        <_>
          12 23 3 1 3.</_></rects>
      <tilted>0</tilted></_>
    <_>
      <rects>
        <_>
          10 0 2 24 -1.</_>
        <_>
          10 12 2 12 2.</_></rects>
      <tilted>0</tilted></_>
    <_>
      <rects>
        <_>
          10 20 8 3 -1.</_>
        <_>
          10 21 8 1 3.</_></rects>
      <tilted>0</tilted></_>
    <_>
      <rects>
        <_>
          11 0 13 6 -1.</_>
        <_>
          11 2 13 2 3.</_></rects>
      <tilted>0</tilted></_>
    <_>
      <rects>
        <_>
          11 2 9 3 -1.</_>
        <_>
          11 3 9 1 3.</_></rects>
      <tilted>0</tilted></_>
    <_>
      <rects>
        <_>
          12 0 2 1 -1.</_>
        <_>
          13 0 1 1 2.</_></rects>
      <tilted>0</tilted></_>
    <_>
      <rects>
        <_>
          12 18 6 5 -1.</_>
        <_>
          15 18 3 5 2.</_></rects>
      <tilted>0</tilted></_>
    <_>
      <rects>
        <_>
          13 0 6 1 -1.</_>
        <_>
          15 0 2 1 3.</_></rects>
      <tilted>0</tilted></_>
    <_>
      <rects>
        <_>
          13 0 9 11 -1.</_>
        <_>
          16 0 3 11 3.</_></rects>
      <tilted>0</tilted></_>
    <_>
      <rects>
        <_>
          13 21 3 3 -1.</_>
        <_>
          13 22 3 1 3.</_></rects>
      <tilted>0</tilted></_>
    <_>
      <rects>
        <_>
          14 0 1 4 -1.</_>
        <_>
          14 2 1 2 2.</_></rects>
      <tilted>0</tilted></_>
    <_>
      <rects>
        <_>
          14 0 5 4 -1.</_>
        <_>
          14 2 5 2 2.</_></rects>
      <tilted>0</tilted></_>
    <_>
      <rects>
        <_>
          14 1 6 4 -1.</_>
        <_>
          14 1 3 2 2.</_>
        <_>
          17 3 3 2 2.</_></rects>
      <tilted>0</tilted></_>
    <_>
      <rects>
        <_>
          14 4 8 9 -1.</_>
        <_>
          14 7 8 3 3.</_></rects>
      <tilted>0</tilted></_>
    <_>
      <rects>
        <_>
          15 17 4 6 -1.</_>
        <_>
          15 17 2 3 2.</_>
        <_>
          17 20 2 3 2.</_></rects>
      <tilted>0</tilted></_>
    <_>
      <rects>
        <_>
          15 18 3 2 -1.</_>
        <_>
          15 19 3 1 2.</_></rects>
      <tilted>0</tilted></_>
    <_>
      <rects>
        <_>
          15 19 2 2 -1.</_>
        <_>
          15 19 1 1 2.</_>
        <_>
          16 20 1 1 2.</_></rects>
      <tilted>0</tilted></_>
    <_>
      <rects>
        <_>
          15 21 8 2 -1.</_>
        <_>
          15 21 4 1 2.</_>
        <_>
          19 22 4 1 2.</_></rects>
      <tilted>0</tilted></_>
    <_>
      <rects>
        <_>
          16 0 2 4 -1.</_>
        <_>
          17 0 1 4 2.</_></rects>
      <tilted>0</tilted></_>
    <_>
      <rects>
        <_>
          16 1 4 6 -1.</_>
        <_>
          16 1 2 3 2.</_>
        <_>
          18 4 2 3 2.</_></rects>
      <tilted>0</tilted></_>
    <_>
      <rects>
        <_>
          16 2 4 2 -1.</_>
        <_>
          16 2 2 1 2.</_>
        <_>
          18 3 2 1 2.</_></rects>
      <tilted>0</tilted></_>
    <_>
      <rects>
        <_>
          16 4 6 2 -1.</_>
        <_>
          16 4 3 1 2.</_>
        <_>
          19 5 3 1 2.</_></rects>
      <tilted>0</tilted></_>
    <_>
      <rects>
        <_>
          16 4 8 20 -1.</_>
        <_>
          16 4 4 10 2.</_>
        <_>
          20 14 4 10 2.</_></rects>
      <tilted>0</tilted></_>
    <_>
      <rects>
        <_>
          17 1 2 4 -1.</_>
        <_>
          18 1 1 4 2.</_></rects>
      <tilted>0</tilted></_>
    <_>
      <rects>
        <_>
          17 11 2 4 -1.</_>
        <_>
          17 11 1 2 2.</_>
        <_>
          18 13 1 2 2.</_></rects>
      <tilted>0</tilted></_>
    <_>
      <rects>
        <_>
          17 13 4 2 -1.</_>
        <_>
          17 14 4 1 2.</_></rects>
      <tilted>0</tilted></_>
    <_>
      <rects>
        <_>
          17 19 4 4 -1.</_>
        <_>
          17 19 2 2 2.</_>
        <_>
          19 21 2 2 2.</_></rects>
      <tilted>0</tilted></_>
    <_>
      <rects>
        <_>
          17 20 2 2 -1.</_>
        <_>
          17 20 1 1 2.</_>
        <_>
          18 21 1 1 2.</_></rects>
      <tilted>0</tilted></_>
    <_>
      <rects>
        <_>
          17 21 2 1 -1.</_>
        <_>
          18 21 1 1 2.</_></rects>
      <tilted>0</tilted></_>
    <_>
      <rects>
        <_>
          17 21 2 2 -1.</_>
        <_>
          18 21 1 2 2.</_></rects>
      <tilted>0</tilted></_>
    <_>
      <rects>
        <_>
          17 23 6 1 -1.</_>
        <_>
          19 23 2 1 3.</_></rects>
      <tilted>0</tilted></_>
    <_>
      <rects>
        <_>
          18 3 6 4 -1.</_>
        <_>
          21 3 3 4 2.</_></rects>
      <tilted>0</tilted></_>
    <_>
      <rects>
        <_>
          18 9 3 7 -1.</_>
        <_>
          19 9 1 7 3.</_></rects>
      <tilted>0</tilted></_>
    <_>
      <rects>
        <_>
          18 15 4 4 -1.</_>
        <_>
          18 15 2 2 2.</_>
        <_>
          20 17 2 2 2.</_></rects>
      <tilted>0</tilted></_>
    <_>
      <rects>
        <_>
          18 18 2 2 -1.</_>
        <_>
          18 18 1 1 2.</_>
        <_>
          19 19 1 1 2.</_></rects>
      <tilted>0</tilted></_>
    <_>
      <rects>
        <_>
          19 1 4 2 -1.</_>
        <_>
          21 1 2 2 2.</_></rects>
      <tilted>0</tilted></_>
    <_>
      <rects>
        <_>
          19 3 2 4 -1.</_>
        <_>
          19 3 1 2 2.</_>
        <_>
          20 5 1 2 2.</_></rects>
      <tilted>0</tilted></_>
    <_>
      <rects>
        <_>
          19 3 4 17 -1.</_>
        <_>
          21 3 2 17 2.</_></rects>
      <tilted>0</tilted></_>
    <_>
      <rects>
        <_>
          19 6 4 2 -1.</_>
        <_>
          19 6 2 1 2.</_>
        <_>
          21 7 2 1 2.</_></rects>
      <tilted>0</tilted></_>
    <_>
      <rects>
        <_>
          19 19 3 1 -1.</_>
        <_>
          20 19 1 1 3.</_></rects>
      <tilted>0</tilted></_>
    <_>
      <rects>
        <_>
          19 19 2 2 -1.</_>
        <_>
          19 19 1 1 2.</_>
        <_>
          20 20 1 1 2.</_></rects>
      <tilted>0</tilted></_>
    <_>
      <rects>
        <_>
          19 22 2 2 -1.</_>
        <_>
          20 22 1 2 2.</_></rects>
      <tilted>0</tilted></_>
    <_>
      <rects>
        <_>
          20 1 2 1 -1.</_>
        <_>
          21 1 1 1 2.</_></rects>
      <tilted>0</tilted></_>
    <_>
      <rects>
        <_>
          20 1 2 9 -1.</_>
        <_>
          21 1 1 9 2.</_></rects>
      <tilted>0</tilted></_>
    <_>
      <rects>
        <_>
          20 1 4 2 -1.</_>
        <_>
          22 1 2 2 2.</_></rects>
      <tilted>0</tilted></_>
    <_>
      <rects>
        <_>
          20 3 1 4 -1.</_>
        <_>
          20 5 1 2 2.</_></rects>
      <tilted>0</tilted></_>
    <_>
      <rects>
        <_>
          20 4 2 4 -1.</_>
        <_>
          20 4 1 2 2.</_>
        <_>
          21 6 1 2 2.</_></rects>
      <tilted>0</tilted></_>
    <_>
      <rects>
        <_>
          20 4 3 12 -1.</_>
        <_>
          21 4 1 12 3.</_></rects>
      <tilted>0</tilted></_>
    <_>
      <rects>
        <_>
          20 5 4 12 -1.</_>
        <_>
          22 5 2 12 2.</_></rects>
      <tilted>0</tilted></_>
    <_>
      <rects>
        <_>
          20 10 3 6 -1.</_>
        <_>
          21 10 1 6 3.</_></rects>
      <tilted>0</tilted></_>
    <_>
      <rects>
        <_>
          20 13 2 2 -1.</_>
        <_>
          20 13 1 1 2.</_>
        <_>
          21 14 1 1 2.</_></rects>
      <tilted>0</tilted></_>
    <_>
      <rects>
        <_>
          20 17 3 1 -1.</_>
        <_>
          21 17 1 1 3.</_></rects>
      <tilted>0</tilted></_>
    <_>
      <rects>
        <_>
          20 22 2 2 -1.</_>
        <_>
          21 22 1 2 2.</_></rects>
      <tilted>0</tilted></_>
    <_>
      <rects>
        <_>
          20 23 4 1 -1.</_>
        <_>
          22 23 2 1 2.</_></rects>
      <tilted>0</tilted></_>
    <_>
      <rects>
        <_>
          21 6 2 1 -1.</_>
        <_>
          22 6 1 1 2.</_></rects>
      <tilted>0</tilted></_>
    <_>
      <rects>
        <_>
          21 8 3 9 -1.</_>
        <_>
          22 8 1 9 3.</_></rects>
      <tilted>0</tilted></_>
    <_>
      <rects>
        <_>
          21 9 3 7 -1.</_>
        <_>
          22 9 1 7 3.</_></rects>
      <tilted>0</tilted></_>
    <_>
      <rects>
        <_>
          21 9 3 9 -1.</_>
        <_>
          22 9 1 9 3.</_></rects>
      <tilted>0</tilted></_>
    <_>
      <rects>
        <_>
          21 10 3 2 -1.</_>
        <_>
          21 11 3 1 2.</_></rects>
      <tilted>0</tilted></_>
    <_>
      <rects>
        <_>
          21 11 3 6 -1.</_>
        <_>
          22 11 1 6 3.</_></rects>
      <tilted>0</tilted></_>
    <_>
      <rects>
        <_>
          21 12 2 4 -1.</_>
        <_>
          21 12 1 2 2.</_>
        <_>
          22 14 1 2 2.</_></rects>
      <tilted>0</tilted></_>
    <_>
      <rects>
        <_>
          21 13 2 2 -1.</_>
        <_>
          21 13 1 1 2.</_>
        <_>
          22 14 1 1 2.</_></rects>
      <tilted>0</tilted></_>
    <_>
      <rects>
        <_>
          21 17 2 1 -1.</_>
        <_>
          22 17 1 1 2.</_></rects>
      <tilted>0</tilted></_>
    <_>
      <rects>
        <_>
          21 17 3 2 -1.</_>
        <_>
          21 18 3 1 2.</_></rects>
      <tilted>0</tilted></_>
    <_>
      <rects>
        <_>
          22 4 2 1 -1.</_>
        <_>
          23 4 1 1 2.</_></rects>
      <tilted>0</tilted></_>
    <_>
      <rects>
        <_>
          22 6 2 6 -1.</_>
        <_>
          22 8 2 2 3.</_></rects>
      <tilted>0</tilted></_>
    <_>
      <rects>
        <_>
          22 8 2 6 -1.</_>
        <_>
          22 8 1 3 2.</_>
        <_>
          23 11 1 3 2.</_></rects>
      <tilted>0</tilted></_>
    <_>
      <rects>
        <_>
          22 18 2 2 -1.</_>
        <_>
          23 18 1 2 2.</_></rects>
      <tilted>0</tilted></_>
    <_>
      <rects>
        <_>
          22 19 2 2 -1.</_>
        <_>
          22 19 1 1 2.</_>
        <_>
          23 20 1 1 2.</_></rects>
      <tilted>0</tilted></_>
    <_>
      <rects>
        <_>
          22 20 2 4 -1.</_>
        <_>
          22 20 1 2 2.</_>
        <_>
          23 22 1 2 2.</_></rects>
      <tilted>0</tilted></_>
    <_>
      <rects>
        <_>
          22 23 2 1 -1.</_>
        <_>
          23 23 1 1 2.</_></rects>
      <tilted>0</tilted></_>
    <_>
      <rects>
        <_>
          23 14 1 3 -1.</_>
        <_>
          23 15 1 1 3.</_></rects>
      <tilted>0</tilted></_></features></cascade>
</opencv_storage>
